-19.960
-19.920
-19.880
-19.840
-19.800
-19.760
-19.720
-19.680
-19.640
-19.600
-19.560
-19.520
-19.480
-19.440
-19.400
-19.360
-19.320
-19.280
-19.240
-19.200
-19.160
-19.120
-19.080
-19.040
-19.000
-18.960
-18.920
-18.880
-18.840
-18.800
-18.760
-18.720
-18.680
-18.640
-18.600
-18.560
-18.520
-18.480
-18.440
-18.400
-18.360
-18.320
-18.280
-18.240
-18.200
-18.160
-18.120
-18.080
-18.040
-18.000
-17.960
-17.920
-17.880
-17.840
-17.800
-17.760
-17.720
-17.680
-17.640
-17.600
-17.560
-17.520
-17.480
-17.440
-17.400
-17.360
-17.320
-17.280
-17.240
-17.200
-17.160
-17.120
-17.080
-17.040
-17.000
-16.960
-16.920
-16.880
-16.840
-16.800
-16.760
-16.720
-16.680
-16.640
-16.600
-16.560
-16.520
-16.480
-16.440
-16.400
-16.360
-16.320
-16.280
-16.240
-16.200
-16.160
-16.120
-16.080
-16.040
-16.000
-15.960
-15.920
-15.880
-15.840
-15.800
-15.760
-15.720
-15.680
-15.640
-15.600
-15.560
-15.520
-15.480
-15.440
-15.400
-15.360
-15.320
-15.280
-15.240
-15.200
-15.160
-15.120
-15.080
-15.040
-15.000
-14.960
-14.920
-14.880
-14.840
-14.800
-14.760
-14.720
-14.680
-14.640
-14.600
-14.560
-14.520
-14.480
-14.440
-14.400
-14.360
-14.320
-14.280
-14.240
-14.200
-14.160
-14.120
-14.080
-14.040
-14.000
-13.960
-13.920
-13.880
-13.840
-13.800
-13.760
-13.720
-13.680
-13.640
-13.600
-13.560
-13.520
-13.480
-13.440
-13.400
-13.360
-13.320
-13.280
-13.240
-13.200
-13.160
-13.120
-13.080
-13.040
-13.000
-12.960
-12.920
-12.880
-12.840
-12.800
-12.760
-12.720
-12.680
-12.640
-12.600
-12.560
-12.520
-12.480
-12.440
-12.400
-12.360
-12.320
-12.280
-12.240
-12.200
-12.160
-12.120
-12.080
-12.040
-12.000
-11.960
-11.920
-11.880
-11.840
-11.800
-11.760
-11.720
-11.680
-11.640
-11.600
-11.560
-11.520
-11.480
-11.440
-11.400
-11.360
-11.320
-11.280
-11.240
-11.200
-11.160
-11.120
-11.080
-11.040
-11.000
-10.960
-10.920
-10.880
-10.840
-10.800
-10.760
-10.720
-10.680
-10.640
-10.600
-10.560
-10.520
-10.480
-10.440
-10.400
-10.360
-10.320
-10.280
-10.240
-10.200
-10.160
-10.120
-10.080
-10.040
-10.000
-9.960
-9.920
-9.880
-9.840
-9.800
-9.760
-9.720
-9.680
-9.640
-9.600
-9.560
-9.520
-9.480
-9.440
-9.400
-9.360
-9.320
-9.280
-9.240
-9.200
-9.160
-9.120
-9.080
-9.040
-9.000
-8.960
-8.920
-8.880
-8.840
-8.800
-8.760
-8.720
-8.680
-8.640
-8.600
-8.560
-8.520
-8.480
-8.440
-8.400
-8.360
-8.320
-8.280
-8.240
-8.200
-8.160
-8.120
-8.080
-8.040
-8.000
-7.960
-7.920
-7.880
-7.840
-7.800
-7.760
-7.720
-7.680
-7.640
-7.600
-7.560
-7.520
-7.480
-7.440
-7.400
-7.360
-7.320
-7.280
-7.240
-7.200
-7.160
-7.120
-7.080
-7.040
-7.000
-6.960
-6.920
-6.880
-6.840
-6.800
-6.760
-6.720
-6.680
-6.640
-6.600
-6.560
-6.520
-6.480
-6.440
-6.400
-6.360
-6.320
-6.280
-6.240
-6.200
-6.160
-6.120
-6.080
-6.040
-6.000
-5.960
-5.920
-5.880
-5.840
-5.800
-5.760
-5.720
-5.680
-5.640
-5.600
-5.560
-5.520
-5.480
-5.440
-5.400
-5.360
-5.320
-5.280
-5.240
-5.200
-5.160
-5.120
-5.080
-5.040
-5.000
-4.960
-4.920
-4.880
-4.840
-4.800
-4.760
-4.720
-4.680
-4.640
-4.600
-4.560
-4.520
-4.480
-4.440
-4.400
-4.360
-4.320
-4.280
-4.240
-4.200
-4.160
-4.120
-4.080
-4.040
-4.000
-3.960
-3.920
-3.880
-3.840
-3.800
-3.760
-3.720
-3.680
-3.640
-3.600
-3.560
-3.520
-3.480
-3.440
-3.400
-3.360
-3.320
-3.280
-3.240
-3.200
-3.160
-3.120
-3.080
-3.040
-3.000
-2.960
-2.920
-2.880
-2.840
-2.800
-2.760
-2.720
-2.680
-2.640
-2.600
-2.560
-2.520
-2.480
-2.440
-2.400
-2.360
-2.320
-2.280
-2.240
-2.200
-2.160
-2.120
-2.080
-2.040
-2.000
-1.960
-1.920
-1.880
-1.840
-1.800
-1.760
-1.720
-1.680
-1.640
-1.600
-1.560
-1.520
-1.480
-1.440
-1.400
-1.360
-1.320
-1.280
-1.240
-1.200
-1.160
-1.120
-1.080
-1.040
-1.000
-0.960
-0.920
-0.880
-0.840
-0.800
-0.760
-0.720
-0.680
-0.640
-0.600
-0.560
-0.520
-0.480
-0.440
-0.400
-0.360
-0.320
-0.280
-0.240
-0.200
-0.160
-0.120
-0.080
-0.040
0.000
0.040
0.080
0.120
0.160
0.200
0.240
0.280
0.320
0.360
0.400
0.440
0.480
0.520
0.560
0.600
0.640
0.680
0.720
0.760
0.800
0.840
0.880
0.920
0.960
1.000
1.040
1.080
1.120
1.160
1.200
1.240
1.280
1.320
1.360
1.400
1.440
1.480
1.520
1.560
1.600
1.640
1.680
1.720
1.760
1.800
1.840
1.880
1.920
1.960
2.000
2.040
2.080
2.120
2.160
2.200
2.240
2.280
2.320
2.360
2.400
2.440
2.480
2.520
2.560
2.600
2.640
2.680
2.720
2.760
2.800
2.840
2.880
2.920
2.960
3.000
3.040
3.080
3.120
3.160
3.200
3.240
3.280
3.320
3.360
3.400
3.440
3.480
3.520
3.560
3.600
3.640
3.680
3.720
3.760
3.800
3.840
3.880
3.920
3.960
4.000
4.040
4.080
4.120
4.160
4.200
4.240
4.280
4.320
4.360
4.400
4.440
4.480
4.520
4.560
4.600
4.640
4.680
4.720
4.760
4.800
4.840
4.880
4.920
4.960
5.000
5.040
5.080
5.120
5.160
5.200
5.240
5.280
5.320
5.360
5.400
5.440
5.480
5.520
5.560
5.600
5.640
5.680
5.720
5.760
5.800
5.840
5.880
5.920
5.960
6.000
6.040
6.080
6.120
6.160
6.200
6.240
6.280
6.320
6.360
6.400
6.440
6.480
6.520
6.560
6.600
6.640
6.680
6.720
6.760
6.800
6.840
6.880
6.920
6.960
7.000
7.040
7.080
7.120
7.160
7.200
7.240
7.280
7.320
7.360
7.400
7.440
7.480
7.520
7.560
7.600
7.640
7.680
7.720
7.760
7.800
7.840
7.880
7.920
7.960
8.000
8.040
8.080
8.120
8.160
8.200
8.240
8.280
8.320
8.360
8.400
8.440
8.480
8.520
8.560
8.600
8.640
8.680
8.720
8.760
8.800
8.840
8.880
8.920
8.960
9.000
9.040
9.080
9.120
9.160
9.200
9.240
9.280
9.320
9.360
9.400
9.440
9.480
9.520
9.560
9.600
9.640
9.680
9.720
9.760
9.800
9.840
9.880
9.920
9.960
10.000
10.040
10.080
10.120
10.160
10.200
10.240
10.280
10.320
10.360
10.400
10.440
10.480
10.520
10.560
10.600
10.640
10.680
10.720
10.760
10.800
10.840
10.880
10.920
10.960
11.000
11.040
11.080
11.120
11.160
11.200
11.240
11.280
11.320
11.360
11.400
11.440
11.480
11.520
11.560
11.600
11.640
11.680
11.720
11.760
11.800
11.840
11.880
11.920
11.960
12.000
12.040
12.080
12.120
12.160
12.200
12.240
12.280
12.320
12.360
12.400
12.440
12.480
12.520
12.560
12.600
12.640
12.680
12.720
12.760
12.800
12.840
12.880
12.920
12.960
13.000
13.040
13.080
13.120
13.160
13.200
13.240
13.280
13.320
13.360
13.400
13.440
13.480
13.520
13.560
13.600
13.640
13.680
13.720
13.760
13.800
13.840
13.880
13.920
13.960
14.000
14.040
14.080
14.120
14.160
14.200
14.240
14.280
14.320
14.360
14.400
14.440
14.480
14.520
14.560
14.600
14.640
14.680
14.720
14.760
14.800
14.840
14.880
14.920
14.960
15.000
15.040
15.080
15.120
15.160
15.200
15.240
15.280
15.320
15.360
15.400
15.440
15.480
15.520
15.560
15.600
15.640
15.680
15.720
15.760
15.800
15.840
15.880
15.920
15.960
16.000
16.040
16.080
16.120
16.160
16.200
16.240
16.280
16.320
16.360
16.400
16.440
16.480
16.520
16.560
16.600
16.640
16.680
16.720
16.760
16.800
16.840
16.880
16.920
16.960
17.000
17.040
17.080
17.120
17.160
17.200
17.240
17.280
17.320
17.360
17.400
17.440
17.480
17.520
17.560
17.600
17.640
17.680
17.720
17.760
17.800
17.840
17.880
17.920
17.960
18.000
18.040
18.080
18.120
18.160
18.200
18.240
18.280
18.320
18.360
18.400
18.440
18.480
18.520
18.560
18.600
18.640
18.680
18.720
18.760
18.800
18.840
18.880
18.920
18.960
19.000
19.040
19.080
19.120
19.160
19.200
19.240
19.280
19.320
19.360
19.400
19.440
19.480
19.520
19.560
19.600
19.640
19.680
19.720
19.760
19.800
19.840
19.880
19.920
19.960
20.000
